digraph "cv::ocl::HOGDescriptor"
{
 // LATEX_PDF_SIZE
  edge [fontname="Helvetica",fontsize="10",labelfontname="Helvetica",labelfontsize="10"];
  node [fontname="Helvetica",fontsize="10",shape=record];
  Node1 [label="{cv::ocl::HOGDescriptor\n|+ nbins\l+ win_sigma\l+ threshold_L2hys\l+ gamma_correction\l+ nlevels\l# free_coef\l|+ HOGDescriptor()\l+ getDescriptorSize()\l+ getBlockHistogramSize()\l+ setSVMDetector()\l+ detect()\l+ detectMultiScale()\l+ getDescriptors()\l+ getDefaultPeopleDetector()\l+ getPeopleDetector48x96()\l+ getPeopleDetector64x128()\l# init_buffer()\l# computeBlockHistograms()\l# computeGradient()\l# getWinSigma()\l# checkDetectorSize()\l# numPartsWithin()\l# numPartsWithin()\l}",height=0.2,width=0.4,color="black", fillcolor="grey75", style="filled", fontcolor="black",tooltip=" "];
  Node2 -> Node1 [color="grey25",fontsize="10",style="solid",label=" #effect_size\n+block_size\n+block_stride\n+cell_size\n+win_size" ,arrowhead="odiamond",fontname="Helvetica"];
  Node2 [label="{Size\n||}",height=0.2,width=0.4,color="black", fillcolor="white", style="filled",tooltip=" "];
  Node3 -> Node1 [color="grey25",fontsize="10",style="solid",label=" #block_hists\n#detector\n#grad\n#image_scale\n#labels\n#qangle" ,arrowhead="odiamond",fontname="Helvetica"];
  Node3 [label="{cv::ocl::oclMat\n|+ flags\l+ rows\l+ cols\l+ step\l+ data\l+ refcount\l+ datastart\l+ dataend\l+ offset\l+ wholerows\l+ wholecols\l|+ oclMat()\l+ oclMat()\l+ oclMat()\l+ oclMat()\l+ oclMat()\l+ oclMat()\l+ oclMat()\l+ oclMat()\l+ oclMat()\l+ oclMat()\land 49 more...\l}",height=0.2,width=0.4,color="black", fillcolor="white", style="filled",URL="$classcv_1_1ocl_1_1ocl_mat.html",tooltip=" "];
  Node4 -> Node3 [color="grey25",fontsize="10",style="solid",label=" +clCxt" ,arrowhead="odiamond",fontname="Helvetica"];
  Node4 [label="{cv::ocl::Context\n||+ supportsFeature()\l+ getDeviceInfo()\l+ getOpenCLContextPtr()\l+ getOpenCLCommandQueuePtr()\l+ getOpenCLDeviceIDPtr()\l+ getContext()\l# Context()\l# ~Context()\l}",height=0.2,width=0.4,color="black", fillcolor="white", style="filled",URL="$classcv_1_1ocl_1_1_context.html",tooltip=" "];
  Node5 -> Node1 [color="grey25",fontsize="10",style="solid",label=" #labels_host" ,arrowhead="odiamond",fontname="Helvetica"];
  Node5 [label="{Mat\n||}",height=0.2,width=0.4,color="black", fillcolor="white", style="filled",tooltip=" "];
}
