digraph "cv::gpu::HOGDescriptor"
{
 // LATEX_PDF_SIZE
  edge [fontname="Helvetica",fontsize="10",labelfontname="Helvetica",labelfontsize="10"];
  node [fontname="Helvetica",fontsize="10",shape=record];
  Node1 [label="{cv::gpu::HOGDescriptor\n|+ nbins\l+ win_sigma\l+ threshold_L2hys\l+ gamma_correction\l+ nlevels\l# free_coef\l# detector\l# labels\l# labels_buf\l# block_hists\l# block_hists_buf\l# grad\l# qangle\l# grad_buf\l# qangle_buf\l# image_scales\l|+ HOGDescriptor()\l+ getDescriptorSize()\l+ getBlockHistogramSize()\l+ setSVMDetector()\l+ detect()\l+ detectMultiScale()\l+ computeConfidence()\l+ computeConfidenceMultiScale()\l+ getDescriptors()\l+ getDefaultPeopleDetector()\l+ getPeopleDetector48x96()\l+ getPeopleDetector64x128()\l# computeBlockHistograms()\l# computeGradient()\l# getWinSigma()\l# checkDetectorSize()\l# numPartsWithin()\l# numPartsWithin()\l# getBuffer()\l# getBuffer()\l}",height=0.2,width=0.4,color="black", fillcolor="grey75", style="filled", fontcolor="black",tooltip=" "];
  Node2 -> Node1 [color="grey25",fontsize="10",style="solid",label=" +block_size\n+block_stride\n+cell_size\n+win_size" ,arrowhead="odiamond",fontname="Helvetica"];
  Node2 [label="{Size\n||}",height=0.2,width=0.4,color="black", fillcolor="white", style="filled",tooltip=" "];
  Node3 -> Node1 [color="grey25",fontsize="10",style="solid",label=" #labels_host" ,arrowhead="odiamond",fontname="Helvetica"];
  Node3 [label="{Mat\n||}",height=0.2,width=0.4,color="black", fillcolor="white", style="filled",tooltip=" "];
}
